digraph Tree {
node [shape=box, style="filled, rounded", color="black", fontname=helvetica] ;
edge [fontname=helvetica] ;
0 [label="exer_ind_angina <= 0.37\ngini = 0.49\nsamples = 100.0%\nvalue = [0.58, 0.42]\nclass = CAD", fillcolor="#f8ddca"] ;
1 [label="max_heart_rate <= -0.17\n0.34\n66.9%\n[0.79, 0.21]\nCAD", fillcolor="#eca36f"] ;
0 -> 1 [labeldistance=2.5, labelangle=45, headlabel="True"] ;
2 [label="num_major_vessels <= -0.16\n0.5\n19.4%\n[0.5, 0.5]\nCAD", fillcolor="#ffffff"] ;
1 -> 2 ;
3 [label="max_heart_rate <= -0.45\n0.31\n12.2%\n[0.81, 0.19]\nCAD", fillcolor="#eb9f68"] ;
2 -> 3 ;
4 [label="chest_pain_type <= -1.73\n0.22\n10.8%\n[0.88, 0.12]\nCAD", fillcolor="#e99355"] ;
3 -> 4 ;
5 [label="0.0\n1.4%\n[0.0, 1.0]\nNo CAD", fillcolor="#399de5"] ;
4 -> 5 ;
6 [label="0.0\n9.4%\n[1.0, 0.0]\nCAD", fillcolor="#e58139"] ;
4 -> 6 ;
7 [label="0.0\n1.4%\n[0.0, 1.0]\nNo CAD", fillcolor="#399de5"] ;
3 -> 7 ;
8 [label="0.0\n7.2%\n[0.0, 1.0]\nNo CAD", fillcolor="#399de5"] ;
2 -> 8 ;
9 [label="age <= 0.46\n0.18\n47.5%\n[0.9, 0.1]\nCAD", fillcolor="#e88f4f"] ;
1 -> 9 ;
10 [label="rest_blood_press <= 1.13\n0.05\n37.4%\n[0.98, 0.02]\nCAD", fillcolor="#e6843e"] ;
9 -> 10 ;
11 [label="0.0\n35.3%\n[1.0, 0.0]\nCAD", fillcolor="#e58139"] ;
10 -> 11 ;
12 [label="rest_blood_press <= 1.43\n0.48\n2.2%\n[0.6, 0.4]\nCAD", fillcolor="#f6d5bd"] ;
10 -> 12 ;
13 [label="0.5\n1.4%\n[0.5, 0.5]\nCAD", fillcolor="#ffffff"] ;
12 -> 13 ;
14 [label="0.0\n0.7%\n[1.0, 0.0]\nCAD", fillcolor="#e58139"] ;
12 -> 14 ;
15 [label="cholesterol <= 0.15\n0.46\n10.1%\n[0.64, 0.36]\nCAD", fillcolor="#f4c8a8"] ;
9 -> 15 ;
16 [label="0.0\n3.6%\n[1.0, 0.0]\nCAD", fillcolor="#e58139"] ;
15 -> 16 ;
17 [label="num_major_vessels <= 0.88\n0.5\n6.5%\n[0.47, 0.53]\nNo CAD", fillcolor="#e9f4fc"] ;
15 -> 17 ;
18 [label="0.47\n5.0%\n[0.62, 0.38]\nCAD", fillcolor="#f5d0b5"] ;
17 -> 18 ;
19 [label="0.0\n1.4%\n[0.0, 1.0]\nNo CAD", fillcolor="#399de5"] ;
17 -> 19 ;
20 [label="st_slope <= -0.17\n0.28\n33.1%\n[0.17, 0.83]\nNo CAD", fillcolor="#61b1ea"] ;
0 -> 20 [labeldistance=2.5, labelangle=-45, headlabel="False"] ;
21 [label="num_major_vessels <= -0.16\n0.49\n8.6%\n[0.44, 0.56]\nNo CAD", fillcolor="#d3e9f9"] ;
20 -> 21 ;
22 [label="age <= 0.35\n0.24\n4.3%\n[0.86, 0.14]\nCAD", fillcolor="#e9965a"] ;
21 -> 22 ;
23 [label="0.0\n2.9%\n[1.0, 0.0]\nCAD", fillcolor="#e58139"] ;
22 -> 23 ;
24 [label="age <= 0.46\n0.44\n1.4%\n[0.67, 0.33]\nCAD", fillcolor="#f2c09c"] ;
22 -> 24 ;
25 [label="0.0\n0.7%\n[0.0, 1.0]\nNo CAD", fillcolor="#399de5"] ;
24 -> 25 ;
26 [label="0.0\n0.7%\n[1.0, 0.0]\nCAD", fillcolor="#e58139"] ;
24 -> 26 ;
27 [label="st_depression <= -0.84\n0.2\n4.3%\n[0.11, 0.89]\nNo CAD", fillcolor="#52a9e8"] ;
21 -> 27 ;
28 [label="rest_blood_press <= -0.92\n0.44\n1.4%\n[0.33, 0.67]\nNo CAD", fillcolor="#9ccef2"] ;
27 -> 28 ;
29 [label="0.0\n0.7%\n[1.0, 0.0]\nCAD", fillcolor="#e58139"] ;
28 -> 29 ;
30 [label="0.0\n0.7%\n[0.0, 1.0]\nNo CAD", fillcolor="#399de5"] ;
28 -> 30 ;
31 [label="0.0\n2.9%\n[0.0, 1.0]\nNo CAD", fillcolor="#399de5"] ;
27 -> 31 ;
32 [label="sex <= -0.4\n0.18\n24.5%\n[0.1, 0.9]\nNo CAD", fillcolor="#4fa8e8"] ;
20 -> 32 ;
33 [label="age <= -0.4\n0.46\n5.0%\n[0.36, 0.64]\nNo CAD", fillcolor="#aad5f4"] ;
32 -> 33 ;
34 [label="0.0\n1.4%\n[1.0, 0.0]\nCAD", fillcolor="#e58139"] ;
33 -> 34 ;
35 [label="0.0\n3.6%\n[0.0, 1.0]\nNo CAD", fillcolor="#399de5"] ;
33 -> 35 ;
36 [label="st_depression <= 0.41\n0.08\n19.4%\n[0.04, 0.96]\nNo CAD", fillcolor="#41a1e6"] ;
32 -> 36 ;
37 [label="num_major_vessels <= -0.16\n0.14\n7.2%\n[0.08, 0.92]\nNo CAD", fillcolor="#49a5e7"] ;
36 -> 37 ;
38 [label="0.28\n2.9%\n[0.17, 0.83]\nNo CAD", fillcolor="#61b1ea"] ;
37 -> 38 ;
39 [label="0.0\n4.3%\n[0.0, 1.0]\nNo CAD", fillcolor="#399de5"] ;
37 -> 39 ;
40 [label="0.0\n12.2%\n[0.0, 1.0]\nNo CAD", fillcolor="#399de5"] ;
36 -> 40 ;
}