digraph Tree {
node [shape=box, style="filled, rounded", color="black", fontname=helvetica] ;
edge [fontname=helvetica] ;
0 [label="max_heart_rate <= -0.17\ngini = 0.49\nsamples = 100.0%\nvalue = [0.57, 0.43]\nclass = No CAD", fillcolor="#f8dfcd"] ;
1 [label="num_major_vessels <= -0.16\n0.4\n40.6%\n[0.27, 0.73]\nCAD", fillcolor="#83c2ef"] ;
0 -> 1 [labeldistance=2.5, labelangle=45, headlabel="True"] ;
2 [label="sex <= -0.4\n0.5\n16.1%\n[0.55, 0.45]\nNo CAD", fillcolor="#fbeade"] ;
1 -> 2 ;
3 [label="cholesterol <= 1.13\n0.18\n4.9%\n[0.9, 0.1]\nNo CAD", fillcolor="#e88f4f"] ;
2 -> 3 ;
4 [label="0.0\n4.2%\n[1.0, 0.0]\nNo CAD", fillcolor="#e58139"] ;
3 -> 4 ;
5 [label="0.0\n0.7%\n[0.0, 1.0]\nCAD", fillcolor="#399de5"] ;
3 -> 5 ;
6 [label="thallium_scint <= -0.06\n0.48\n11.2%\n[0.39, 0.61]\nCAD", fillcolor="#b8dcf6"] ;
2 -> 6 ;
7 [label="0.0\n1.4%\n[1.0, 0.0]\nNo CAD", fillcolor="#e58139"] ;
6 -> 7 ;
8 [label="cholesterol <= -0.21\n0.42\n9.8%\n[0.3, 0.7]\nCAD", fillcolor="#8ec7f0"] ;
6 -> 8 ;
9 [label="0.5\n6.3%\n[0.55, 0.45]\nNo CAD", fillcolor="#fbeade"] ;
8 -> 9 ;
10 [label="0.0\n3.5%\n[0.0, 1.0]\nCAD", fillcolor="#399de5"] ;
8 -> 10 ;
11 [label="rest_blood_press <= -1.46\n0.19\n24.5%\n[0.11, 0.89]\nCAD", fillcolor="#51a9e8"] ;
1 -> 11 ;
12 [label="sex <= -0.4\n0.44\n1.4%\n[0.67, 0.33]\nNo CAD", fillcolor="#f2c09c"] ;
11 -> 12 ;
13 [label="0.0\n0.7%\n[1.0, 0.0]\nNo CAD", fillcolor="#e58139"] ;
12 -> 13 ;
14 [label="0.0\n0.7%\n[0.0, 1.0]\nCAD", fillcolor="#399de5"] ;
12 -> 14 ;
15 [label="num_major_vessels <= 0.88\n0.14\n23.1%\n[0.08, 0.92]\nCAD", fillcolor="#49a5e7"] ;
11 -> 15 ;
16 [label="thallium_scint <= -0.06\n0.26\n11.2%\n[0.15, 0.85]\nCAD", fillcolor="#5dafea"] ;
15 -> 16 ;
17 [label="0.38\n2.1%\n[0.75, 0.25]\nNo CAD", fillcolor="#eeab7b"] ;
16 -> 17 ;
18 [label="0.09\n9.1%\n[0.05, 0.95]\nCAD", fillcolor="#42a2e6"] ;
16 -> 18 ;
19 [label="0.0\n11.9%\n[0.0, 1.0]\nCAD", fillcolor="#399de5"] ;
15 -> 19 ;
20 [label="age <= 0.57\n0.36\n59.4%\n[0.76, 0.24]\nNo CAD", fillcolor="#eda877"] ;
0 -> 20 [labeldistance=2.5, labelangle=-45, headlabel="False"] ;
21 [label="age <= -1.05\n0.22\n46.9%\n[0.87, 0.13]\nNo CAD", fillcolor="#e99356"] ;
20 -> 21 ;
22 [label="rest_blood_press <= 1.13\n0.07\n12.6%\n[0.96, 0.04]\nNo CAD", fillcolor="#e68641"] ;
21 -> 22 ;
23 [label="0.0\n11.9%\n[1.0, 0.0]\nNo CAD", fillcolor="#e58139"] ;
22 -> 23 ;
24 [label="0.0\n0.7%\n[0.0, 1.0]\nCAD", fillcolor="#399de5"] ;
22 -> 24 ;
25 [label="st_depression <= 1.65\n0.27\n34.3%\n[0.84, 0.16]\nNo CAD", fillcolor="#ea995e"] ;
21 -> 25 ;
26 [label="st_slope <= 1.43\n0.23\n32.9%\n[0.86, 0.14]\nNo CAD", fillcolor="#e99558"] ;
25 -> 26 ;
27 [label="0.2\n31.5%\n[0.89, 0.11]\nNo CAD", fillcolor="#e89153"] ;
26 -> 27 ;
28 [label="0.5\n1.4%\n[0.5, 0.5]\nNo CAD", fillcolor="#ffffff"] ;
26 -> 28 ;
29 [label="0.0\n1.4%\n[0.0, 1.0]\nCAD", fillcolor="#399de5"] ;
25 -> 29 ;
30 [label="max_heart_rate <= 0.33\n0.49\n12.6%\n[0.44, 0.56]\nCAD", fillcolor="#d7ebfa"] ;
20 -> 30 ;
31 [label="num_major_vessels <= -0.16\n0.42\n5.6%\n[0.71, 0.29]\nNo CAD", fillcolor="#f0b58b"] ;
30 -> 31 ;
32 [label="age <= 1.27\n0.5\n3.5%\n[0.55, 0.45]\nNo CAD", fillcolor="#fbeade"] ;
31 -> 32 ;
33 [label="0.0\n2.1%\n[1.0, 0.0]\nNo CAD", fillcolor="#e58139"] ;
32 -> 33 ;
34 [label="0.0\n1.4%\n[0.0, 1.0]\nCAD", fillcolor="#399de5"] ;
32 -> 34 ;
35 [label="0.0\n2.1%\n[1.0, 0.0]\nNo CAD", fillcolor="#e58139"] ;
31 -> 35 ;
36 [label="max_heart_rate <= 0.83\n0.33\n7.0%\n[0.21, 0.79]\nCAD", fillcolor="#6eb7ec"] ;
30 -> 36 ;
37 [label="max_heart_rate <= 0.51\n0.12\n5.6%\n[0.06, 0.94]\nCAD", fillcolor="#46a4e7"] ;
36 -> 37 ;
38 [label="0.0\n3.5%\n[0.0, 1.0]\nCAD", fillcolor="#399de5"] ;
37 -> 38 ;
39 [label="0.38\n2.1%\n[0.25, 0.75]\nCAD", fillcolor="#7bbeee"] ;
37 -> 39 ;
40 [label="0.0\n1.4%\n[1.0, 0.0]\nNo CAD", fillcolor="#e58139"] ;
36 -> 40 ;
}