digraph Tree {
node [shape=box, style="filled, rounded", color="black", fontname=helvetica] ;
edge [fontname=helvetica] ;
0 [label="exer_ind_angina <= 0.37\ngini = 0.5\nsamples = 100.0%\nvalue = [0.51, 0.49]\nclass = No CAD", fillcolor="#fefaf6"] ;
1 [label="num_major_vessels <= -0.16\n0.37\n65.0%\n[0.76, 0.24]\nNo CAD", fillcolor="#eda979"] ;
0 -> 1 [labeldistance=2.5, labelangle=45, headlabel="True"] ;
2 [label="thallium_scint <= -0.06\n0.21\n47.1%\n[0.88, 0.12]\nNo CAD", fillcolor="#e89253"] ;
1 -> 2 ;
3 [label="rest_blood_press <= 1.55\n0.16\n34.3%\n[0.91, 0.09]\nNo CAD", fillcolor="#e78d4c"] ;
2 -> 3 ;
4 [label="rest_blood_press <= 0.4\n0.12\n33.6%\n[0.94, 0.06]\nNo CAD", fillcolor="#e78a47"] ;
3 -> 4 ;
5 [label="0.06\n27.1%\n[0.97, 0.03]\nNo CAD", fillcolor="#e68540"] ;
4 -> 5 ;
6 [label="0.28\n6.4%\n[0.83, 0.17]\nNo CAD", fillcolor="#ea9a61"] ;
4 -> 6 ;
7 [label="0.0\n0.7%\n[0.0, 1.0]\nCAD", fillcolor="#399de5"] ;
3 -> 7 ;
8 [label="max_heart_rate <= -0.81\n0.35\n12.9%\n[0.77, 0.23]\nNo CAD", fillcolor="#eda673"] ;
2 -> 8 ;
9 [label="0.0\n1.4%\n[0.0, 1.0]\nCAD", fillcolor="#399de5"] ;
8 -> 9 ;
10 [label="max_heart_rate <= 0.17\n0.26\n11.4%\n[0.85, 0.15]\nNo CAD", fillcolor="#ea975c"] ;
8 -> 10 ;
11 [label="0.0\n5.0%\n[1.0, 0.0]\nNo CAD", fillcolor="#e58139"] ;
10 -> 11 ;
12 [label="0.38\n6.4%\n[0.75, 0.25]\nNo CAD", fillcolor="#eeab7b"] ;
10 -> 12 ;
13 [label="age <= 0.14\n0.49\n17.9%\n[0.42, 0.58]\nCAD", fillcolor="#c9e4f8"] ;
1 -> 13 ;
14 [label="st_slope <= -0.17\n0.36\n5.7%\n[0.77, 0.23]\nNo CAD", fillcolor="#eda774"] ;
13 -> 14 ;
15 [label="0.0\n4.3%\n[1.0, 0.0]\nNo CAD", fillcolor="#e58139"] ;
14 -> 15 ;
16 [label="0.0\n1.4%\n[0.0, 1.0]\nCAD", fillcolor="#399de5"] ;
14 -> 16 ;
17 [label="st_depression <= 0.66\n0.36\n12.1%\n[0.24, 0.76]\nCAD", fillcolor="#78bced"] ;
13 -> 17 ;
18 [label="st_depression <= -0.71\n0.5\n7.1%\n[0.46, 0.54]\nCAD", fillcolor="#e3f1fb"] ;
17 -> 18 ;
19 [label="0.32\n2.1%\n[0.2, 0.8]\nCAD", fillcolor="#6ab6ec"] ;
18 -> 19 ;
20 [label="0.47\n5.0%\n[0.62, 0.38]\nNo CAD", fillcolor="#f5cdb0"] ;
18 -> 20 ;
21 [label="0.0\n5.0%\n[0.0, 1.0]\nCAD", fillcolor="#399de5"] ;
17 -> 21 ;
22 [label="chest_pain_type <= 0.36\n0.2\n35.0%\n[0.11, 0.89]\nCAD", fillcolor="#53aae8"] ;
0 -> 22 [labeldistance=2.5, labelangle=-45, headlabel="False"] ;
23 [label="cholesterol <= -0.34\n0.46\n5.7%\n[0.35, 0.65]\nCAD", fillcolor="#a5d2f3"] ;
22 -> 23 ;
24 [label="0.0\n2.1%\n[1.0, 0.0]\nNo CAD", fillcolor="#e58139"] ;
23 -> 24 ;
25 [label="rest_blood_press <= -1.19\n0.26\n3.6%\n[0.15, 0.85]\nCAD", fillcolor="#5dafea"] ;
23 -> 25 ;
26 [label="0.0\n0.7%\n[1.0, 0.0]\nNo CAD", fillcolor="#e58139"] ;
25 -> 26 ;
27 [label="0.0\n2.9%\n[0.0, 1.0]\nCAD", fillcolor="#399de5"] ;
25 -> 27 ;
28 [label="st_slope <= -0.17\n0.11\n29.3%\n[0.06, 0.94]\nCAD", fillcolor="#45a3e7"] ;
22 -> 28 ;
29 [label="0.0\n5.7%\n[0.0, 1.0]\nCAD", fillcolor="#399de5"] ;
28 -> 29 ;
30 [label="st_depression <= -0.42\n0.14\n23.6%\n[0.07, 0.93]\nCAD", fillcolor="#49a5e7"] ;
28 -> 30 ;
31 [label="cholesterol <= 0.19\n0.48\n3.6%\n[0.4, 0.6]\nCAD", fillcolor="#bddef6"] ;
30 -> 31 ;
32 [label="0.38\n2.9%\n[0.25, 0.75]\nCAD", fillcolor="#7bbeee"] ;
31 -> 32 ;
33 [label="0.0\n0.7%\n[1.0, 0.0]\nNo CAD", fillcolor="#e58139"] ;
31 -> 33 ;
34 [label="cholesterol <= -0.89\n0.08\n20.0%\n[0.04, 0.96]\nCAD", fillcolor="#41a1e6"] ;
30 -> 34 ;
35 [label="0.28\n5.0%\n[0.17, 0.83]\nCAD", fillcolor="#61b1ea"] ;
34 -> 35 ;
36 [label="0.0\n15.0%\n[0.0, 1.0]\nCAD", fillcolor="#399de5"] ;
34 -> 36 ;
}