digraph Tree {
node [shape=box, style="filled, rounded", color="black", fontname=helvetica] ;
edge [fontname=helvetica] ;
0 [label="max_heart_rate <= 150.5\ngini = 0.5\nsamples = 100.0%\nvalue = [0.54, 0.46]\nclass = CAD", fillcolor="#fbece0"] ;
1 [label="cholesterol <= 210.0\n0.41\n47.3%\n[0.29, 0.71]\nNo CAD", fillcolor="#8ac5f0"] ;
0 -> 1 [labeldistance=2.5, labelangle=45, headlabel="True"] ;
2 [label="st_depression <= 1.55\n0.5\n13.0%\n[0.54, 0.46]\nCAD", fillcolor="#fbece1"] ;
1 -> 2 ;
3 [label="fasting_blood_sugar <= 0.5\n0.26\n6.8%\n[0.85, 0.15]\nCAD", fillcolor="#ea985d"] ;
2 -> 3 ;
4 [label="thallium_scint <= 1.5\n0.35\n5.5%\n[0.78, 0.22]\nCAD", fillcolor="#eca572"] ;
3 -> 4 ;
5 [label="0.44\n4.1%\n[0.67, 0.33]\nCAD", fillcolor="#f2c09c"] ;
4 -> 5 ;
6 [label="0.0\n1.4%\n[1.0, 0.0]\nCAD", fillcolor="#e58139"] ;
4 -> 6 ;
7 [label="0.0\n1.4%\n[1.0, 0.0]\nCAD", fillcolor="#e58139"] ;
3 -> 7 ;
8 [label="thallium_scint <= 0.5\n0.3\n6.2%\n[0.18, 0.82]\nNo CAD", fillcolor="#65b3eb"] ;
2 -> 8 ;
9 [label="0.0\n0.7%\n[1.0, 0.0]\nCAD", fillcolor="#e58139"] ;
8 -> 9 ;
10 [label="0.0\n5.5%\n[0.0, 1.0]\nNo CAD", fillcolor="#399de5"] ;
8 -> 10 ;
11 [label="st_slope <= 1.5\n0.35\n34.2%\n[0.22, 0.78]\nNo CAD", fillcolor="#72b9ec"] ;
1 -> 11 ;
12 [label="rest_blood_press <= 146.0\n0.48\n8.9%\n[0.59, 0.41]\nCAD", fillcolor="#f7d8c1"] ;
11 -> 12 ;
13 [label="age <= 47.0\n0.44\n7.5%\n[0.67, 0.33]\nCAD", fillcolor="#f2c09c"] ;
12 -> 13 ;
14 [label="0.0\n0.7%\n[0.0, 1.0]\nNo CAD", fillcolor="#399de5"] ;
13 -> 14 ;
15 [label="0.4\n6.8%\n[0.73, 0.27]\nCAD", fillcolor="#efb083"] ;
13 -> 15 ;
16 [label="0.0\n1.4%\n[0.0, 1.0]\nNo CAD", fillcolor="#399de5"] ;
12 -> 16 ;
17 [label="st_depression <= 1.1\n0.12\n25.3%\n[0.06, 0.94]\nNo CAD", fillcolor="#46a4e7"] ;
11 -> 17 ;
18 [label="thallium_scint <= 0.5\n0.35\n6.2%\n[0.22, 0.78]\nNo CAD", fillcolor="#72b9ec"] ;
17 -> 18 ;
19 [label="0.49\n3.4%\n[0.57, 0.43]\nCAD", fillcolor="#f8e0ce"] ;
18 -> 19 ;
20 [label="0.0\n2.7%\n[0.0, 1.0]\nNo CAD", fillcolor="#399de5"] ;
18 -> 20 ;
21 [label="0.0\n19.2%\n[0.0, 1.0]\nNo CAD", fillcolor="#399de5"] ;
17 -> 21 ;
22 [label="chest_pain_type <= 3.5\n0.32\n52.7%\n[0.8, 0.2]\nCAD", fillcolor="#eca16c"] ;
0 -> 22 [labeldistance=2.5, labelangle=-45, headlabel="False"] ;
23 [label="st_depression <= 3.65\n0.12\n37.0%\n[0.94, 0.06]\nCAD", fillcolor="#e78946"] ;
22 -> 23 ;
24 [label="cholesterol <= 318.5\n0.09\n36.3%\n[0.95, 0.05]\nCAD", fillcolor="#e68843"] ;
23 -> 24 ;
25 [label="rest_blood_press <= 129.5\n0.05\n32.9%\n[0.97, 0.03]\nCAD", fillcolor="#e6853f"] ;
24 -> 25 ;
26 [label="0.0\n15.8%\n[1.0, 0.0]\nCAD", fillcolor="#e58139"] ;
25 -> 26 ;
27 [label="0.09\n17.1%\n[0.95, 0.05]\nCAD", fillcolor="#e68743"] ;
25 -> 27 ;
28 [label="st_depression <= 0.4\n0.41\n3.4%\n[0.71, 0.29]\nCAD", fillcolor="#efb388"] ;
24 -> 28 ;
29 [label="0.0\n1.4%\n[0.0, 1.0]\nNo CAD", fillcolor="#399de5"] ;
28 -> 29 ;
30 [label="0.0\n2.1%\n[1.0, 0.0]\nCAD", fillcolor="#e58139"] ;
28 -> 30 ;
31 [label="0.0\n0.7%\n[0.0, 1.0]\nNo CAD", fillcolor="#399de5"] ;
23 -> 31 ;
32 [label="rest_blood_press <= 116.0\n0.49\n15.8%\n[0.44, 0.56]\nNo CAD", fillcolor="#d3e9f9"] ;
22 -> 32 ;
33 [label="0.0\n2.1%\n[1.0, 0.0]\nCAD", fillcolor="#e58139"] ;
32 -> 33 ;
34 [label="sex <= 0.5\n0.44\n13.7%\n[0.33, 0.67]\nNo CAD", fillcolor="#9ccef2"] ;
32 -> 34 ;
35 [label="rest_ecg <= 1.0\n0.44\n4.8%\n[0.67, 0.33]\nCAD", fillcolor="#f2c09c"] ;
34 -> 35 ;
36 [label="0.0\n1.4%\n[1.0, 0.0]\nCAD", fillcolor="#e58139"] ;
35 -> 36 ;
37 [label="0.5\n3.4%\n[0.5, 0.5]\nCAD", fillcolor="#ffffff"] ;
35 -> 37 ;
38 [label="num_major_vessels <= 0.5\n0.28\n8.9%\n[0.17, 0.83]\nNo CAD", fillcolor="#61b1ea"] ;
34 -> 38 ;
39 [label="0.44\n4.8%\n[0.33, 0.67]\nNo CAD", fillcolor="#9ccef2"] ;
38 -> 39 ;
40 [label="0.0\n4.1%\n[0.0, 1.0]\nNo CAD", fillcolor="#399de5"] ;
38 -> 40 ;
}