digraph Tree {
node [shape=box, style="filled, rounded", color="black", fontname=helvetica] ;
edge [fontname=helvetica] ;
0 [label="max_heart_rate <= -0.17\ngini = 0.49\nsamples = 100.0%\nvalue = [0.56, 0.44]\nclass = CAD", fillcolor="#f9e2d2"] ;
1 [label="age <= 1.48\n0.37\n40.8%\n[0.24, 0.76]\nNo CAD", fillcolor="#79bded"] ;
0 -> 1 [labeldistance=2.5, labelangle=45, headlabel="True"] ;
2 [label="num_major_vessels <= -0.16\n0.32\n37.5%\n[0.2, 0.8]\nNo CAD", fillcolor="#6bb6ec"] ;
1 -> 2 ;
3 [label="cholesterol <= 0.05\n0.46\n20.4%\n[0.36, 0.64]\nNo CAD", fillcolor="#a7d3f3"] ;
2 -> 3 ;
4 [label="chest_pain_type <= 0.36\n0.49\n11.2%\n[0.57, 0.43]\nCAD", fillcolor="#f8e0ce"] ;
3 -> 4 ;
5 [label="0.0\n2.6%\n[1.0, 0.0]\nCAD", fillcolor="#e58139"] ;
4 -> 5 ;
6 [label="0.49\n8.6%\n[0.44, 0.56]\nNo CAD", fillcolor="#d3e9f9"] ;
4 -> 6 ;
7 [label="exer_ind_angina <= 0.37\n0.24\n9.2%\n[0.14, 0.86]\nNo CAD", fillcolor="#5aade9"] ;
3 -> 7 ;
8 [label="0.47\n4.6%\n[0.38, 0.62]\nNo CAD", fillcolor="#b0d8f5"] ;
7 -> 8 ;
9 [label="0.0\n4.6%\n[0.0, 1.0]\nNo CAD", fillcolor="#399de5"] ;
7 -> 9 ;
10 [label="chest_pain_type <= 0.36\n0.09\n17.1%\n[0.05, 0.95]\nNo CAD", fillcolor="#43a2e6"] ;
2 -> 10 ;
11 [label="0.0\n3.3%\n[0.0, 1.0]\nNo CAD", fillcolor="#399de5"] ;
10 -> 11 ;
12 [label="rest_ecg <= -0.46\n0.11\n13.8%\n[0.06, 0.94]\nNo CAD", fillcolor="#46a3e7"] ;
10 -> 12 ;
13 [label="0.35\n3.9%\n[0.22, 0.78]\nNo CAD", fillcolor="#72b9ec"] ;
12 -> 13 ;
14 [label="0.0\n9.9%\n[0.0, 1.0]\nNo CAD", fillcolor="#399de5"] ;
12 -> 14 ;
15 [label="chest_pain_type <= -0.17\n0.28\n3.3%\n[0.83, 0.17]\nCAD", fillcolor="#ea9a61"] ;
1 -> 15 ;
16 [label="0.0\n2.0%\n[1.0, 0.0]\nCAD", fillcolor="#e58139"] ;
15 -> 16 ;
17 [label="rest_ecg <= 0.05\n0.5\n1.3%\n[0.5, 0.5]\nCAD", fillcolor="#ffffff"] ;
15 -> 17 ;
18 [label="0.0\n0.7%\n[1.0, 0.0]\nCAD", fillcolor="#e58139"] ;
17 -> 18 ;
19 [label="0.0\n0.7%\n[0.0, 1.0]\nNo CAD", fillcolor="#399de5"] ;
17 -> 19 ;
20 [label="exer_ind_angina <= 0.37\n0.35\n59.2%\n[0.77, 0.23]\nCAD", fillcolor="#eda673"] ;
0 -> 20 [labeldistance=2.5, labelangle=-45, headlabel="False"] ;
21 [label="num_major_vessels <= -0.16\n0.28\n50.0%\n[0.83, 0.17]\nCAD", fillcolor="#ea9b62"] ;
20 -> 21 ;
22 [label="rest_blood_press <= 1.13\n0.12\n34.9%\n[0.94, 0.06]\nCAD", fillcolor="#e78a46"] ;
21 -> 22 ;
23 [label="age <= 1.0\n0.05\n32.2%\n[0.97, 0.03]\nCAD", fillcolor="#e6843e"] ;
22 -> 23 ;
24 [label="0.03\n31.6%\n[0.99, 0.01]\nCAD", fillcolor="#e5833c"] ;
23 -> 24 ;
25 [label="0.0\n0.7%\n[0.0, 1.0]\nNo CAD", fillcolor="#399de5"] ;
23 -> 25 ;
26 [label="st_depression <= -0.46\n0.48\n2.6%\n[0.4, 0.6]\nNo CAD", fillcolor="#bddef6"] ;
22 -> 26 ;
27 [label="0.0\n1.3%\n[0.0, 1.0]\nNo CAD", fillcolor="#399de5"] ;
26 -> 27 ;
28 [label="0.0\n1.3%\n[1.0, 0.0]\nCAD", fillcolor="#e58139"] ;
26 -> 28 ;
29 [label="chest_pain_type <= 0.36\n0.48\n15.1%\n[0.61, 0.39]\nCAD", fillcolor="#f6d3ba"] ;
21 -> 29 ;
30 [label="max_heart_rate <= 1.11\n0.42\n11.2%\n[0.7, 0.3]\nCAD", fillcolor="#f0b78e"] ;
29 -> 30 ;
31 [label="0.45\n9.9%\n[0.65, 0.35]\nCAD", fillcolor="#f3c4a2"] ;
30 -> 31 ;
32 [label="0.0\n1.3%\n[1.0, 0.0]\nCAD", fillcolor="#e58139"] ;
30 -> 32 ;
33 [label="cholesterol <= 1.06\n0.38\n3.9%\n[0.25, 0.75]\nNo CAD", fillcolor="#7bbeee"] ;
29 -> 33 ;
34 [label="0.24\n3.3%\n[0.14, 0.86]\nNo CAD", fillcolor="#5aade9"] ;
33 -> 34 ;
35 [label="0.0\n0.7%\n[1.0, 0.0]\nCAD", fillcolor="#e58139"] ;
33 -> 35 ;
36 [label="fasting_blood_sugar <= 1.03\n0.5\n9.2%\n[0.45, 0.55]\nNo CAD", fillcolor="#dbedfa"] ;
20 -> 36 ;
37 [label="rest_blood_press <= 0.83\n0.5\n7.9%\n[0.53, 0.47]\nCAD", fillcolor="#fcf1e9"] ;
36 -> 37 ;
38 [label="max_heart_rate <= 0.83\n0.46\n7.2%\n[0.64, 0.36]\nCAD", fillcolor="#f3c7a7"] ;
37 -> 38 ;
39 [label="0.22\n3.9%\n[0.88, 0.12]\nCAD", fillcolor="#e99355"] ;
38 -> 39 ;
40 [label="0.44\n3.3%\n[0.33, 0.67]\nNo CAD", fillcolor="#9ccef2"] ;
38 -> 40 ;
41 [label="0.0\n0.7%\n[0.0, 1.0]\nNo CAD", fillcolor="#399de5"] ;
37 -> 41 ;
42 [label="0.0\n1.3%\n[0.0, 1.0]\nNo CAD", fillcolor="#399de5"] ;
36 -> 42 ;
}